fn score(input: Vec<f64>) -> f64 {
    let var0: f64;
    if input[1] < 357.0_f64 {
        if input[3] < 429.0_f64 {
            if input[4] < 30.0_f64 {
                var0 = 0.19531094_f64;
            } else {
                var0 = 0.19657844_f64;
            }
        } else {
            if input[1] < 195.0_f64 {
                var0 = 0.19734947_f64;
            } else {
                var0 = 0.19798075_f64;
            }
        }
    } else {
        if input[4] < 146.0_f64 {
            if input[1] < 525.0_f64 {
                var0 = 0.1984351_f64;
            } else {
                var0 = 0.19882147_f64;
            }
        } else {
            if input[1] < 2531.0_f64 {
                var0 = 0.19914158_f64;
            } else {
                if input[1] < 337937.0_f64 {
                    var0 = 0.19939746_f64;
                } else {
                    var0 = 0.19812874_f64;
                }
            }
        }
    }
    let var1: f64;
    if input[1] < 342.0_f64 {
        if input[1] < 105.0_f64 {
            if input[4] < 28.0_f64 {
                var1 = 0.19410907_f64;
            } else {
                var1 = 0.19570577_f64;
            }
        } else {
            if input[1] < 200.0_f64 {
                var1 = 0.19674818_f64;
            } else {
                var1 = 0.19752662_f64;
            }
        }
    } else {
        if input[4] < 158.0_f64 {
            if input[1] < 606.0_f64 {
                var1 = 0.19815044_f64;
            } else {
                var1 = 0.19864368_f64;
            }
        } else {
            if input[6] < 0.0011240434_f64 {
                if input[2] < 351341.0_f64 {
                    var1 = 0.19933064_f64;
                } else {
                    var1 = 0.19767636_f64;
                }
            } else {
                var1 = 0.1989953_f64;
            }
        }
    }
    let var2: f64;
    if input[1] < 357.0_f64 {
        if input[5] < 261.0_f64 {
            if input[4] < 30.0_f64 {
                var2 = 0.193076_f64;
            } else {
                var2 = 0.19488189_f64;
            }
        } else {
            if input[1] < 195.0_f64 {
                var2 = 0.19604778_f64;
            } else {
                var2 = 0.19700104_f64;
            }
        }
    } else {
        if input[6] < 0.0020147874_f64 {
            if input[6] < 0.0011401973_f64 {
                if input[2] < 351341.0_f64 {
                    var2 = 0.19917738_f64;
                } else {
                    var2 = 0.19716851_f64;
                }
            } else {
                var2 = 0.19879067_f64;
            }
        } else {
            if input[1] < 712.0_f64 {
                var2 = 0.19786398_f64;
            } else {
                var2 = 0.19838437_f64;
            }
        }
    }
    let var3: f64;
    if input[1] < 350.0_f64 {
        if input[5] < 261.0_f64 {
            if input[4] < 28.0_f64 {
                var3 = 0.1913238_f64;
            } else {
                var3 = 0.19370745_f64;
            }
        } else {
            if input[1] < 200.0_f64 {
                var3 = 0.19521764_f64;
            } else {
                var3 = 0.19634996_f64;
            }
        }
    } else {
        if input[6] < 0.0020735136_f64 {
            if input[6] < 0.0010262777_f64 {
                if input[2] < 351341.0_f64 {
                    var3 = 0.19904378_f64;
                } else {
                    var3 = 0.19655143_f64;
                }
            } else {
                var3 = 0.19854258_f64;
            }
        } else {
            if input[1] < 580.0_f64 {
                var3 = 0.19723254_f64;
            } else {
                var3 = 0.19794153_f64;
            }
        }
    }
    let var4: f64;
    if input[1] < 364.0_f64 {
        if input[5] < 261.0_f64 {
            if input[4] < 30.0_f64 {
                var4 = 0.18982539_f64;
            } else {
                var4 = 0.19245133_f64;
            }
        } else {
            if input[1] < 200.0_f64 {
                var4 = 0.19418667_f64;
            } else {
                var4 = 0.19561474_f64;
            }
        }
    } else {
        if input[6] < 0.0021048414_f64 {
            if input[6] < 0.0010776594_f64 {
                if input[5] < 697195.0_f64 {
                    if input[6] < 0.0006176806_f64 {
                        var4 = 0.19921084_f64;
                    } else {
                        var4 = 0.19865946_f64;
                    }
                } else {
                    var4 = 0.19579358_f64;
                }
            } else {
                var4 = 0.19819628_f64;
            }
        } else {
            if input[1] < 636.0_f64 {
                var4 = 0.19673361_f64;
            } else {
                var4 = 0.19751605_f64;
            }
        }
    }
    let var5: f64;
    if input[1] < 326.0_f64 {
        if input[5] < 261.0_f64 {
            if input[4] < 30.0_f64 {
                var5 = 0.18769863_f64;
            } else {
                var5 = 0.1908494_f64;
            }
        } else {
            if input[1] < 200.0_f64 {
                if input[0] < 5.0_f64 {
                    var5 = 0.19202606_f64;
                } else {
                    var5 = 0.1935066_f64;
                }
            } else {
                var5 = 0.19450171_f64;
            }
        }
    } else {
        if input[6] < 0.0021048414_f64 {
            if input[6] < 0.0010609519_f64 {
                if input[2] < 351341.0_f64 {
                    if input[6] < 0.00057418615_f64 {
                        var5 = 0.19909202_f64;
                    } else {
                        var5 = 0.19838999_f64;
                    }
                } else {
                    var5 = 0.19489472_f64;
                }
            } else {
                if input[6] < 0.0015594165_f64 {
                    var5 = 0.19799924_f64;
                } else {
                    var5 = 0.19759695_f64;
                }
            }
        } else {
            if input[1] < 589.0_f64 {
                var5 = 0.19584505_f64;
            } else {
                var5 = 0.19693741_f64;
            }
        }
    }
    let var6: f64;
    if input[1] < 357.0_f64 {
        if input[5] < 271.0_f64 {
            if input[7] < 116.0_f64 {
                var6 = 0.1852064_f64;
            } else {
                if input[5] < 182.0_f64 {
                    var6 = 0.18801217_f64;
                } else {
                    var6 = 0.18981011_f64;
                }
            }
        } else {
            if input[1] < 200.0_f64 {
                if input[0] < 5.0_f64 {
                    var6 = 0.1903863_f64;
                } else {
                    var6 = 0.19217917_f64;
                }
            } else {
                if input[0] < 2.0_f64 {
                    var6 = 0.1919488_f64;
                } else {
                    var6 = 0.19369978_f64;
                }
            }
        }
    } else {
        if input[6] < 0.002044038_f64 {
            if input[6] < 0.0011092727_f64 {
                if input[5] < 697195.0_f64 {
                    if input[7] < 4879.0_f64 {
                        var6 = 0.19803385_f64;
                    } else {
                        var6 = 0.1989842_f64;
                    }
                } else {
                    var6 = 0.193783_f64;
                }
            } else {
                var6 = 0.19733016_f64;
            }
        } else {
            if input[1] < 636.0_f64 {
                var6 = 0.19514503_f64;
            } else {
                if input[6] < 0.0024632385_f64 {
                    var6 = 0.19665304_f64;
                } else {
                    var6 = 0.19609955_f64;
                }
            }
        }
    }
    let var7: f64;
    if input[1] < 350.0_f64 {
        if input[5] < 261.0_f64 {
            if input[4] < 28.0_f64 {
                var7 = 0.18155858_f64;
            } else {
                if input[5] < 182.0_f64 {
                    var7 = 0.18535367_f64;
                } else {
                    var7 = 0.18758391_f64;
                }
            }
        } else {
            if input[1] < 200.0_f64 {
                if input[0] < 5.0_f64 {
                    var7 = 0.18831216_f64;
                } else {
                    var7 = 0.1904519_f64;
                }
            } else {
                if input[0] < 2.0_f64 {
                    var7 = 0.19019143_f64;
                } else {
                    var7 = 0.19230804_f64;
                }
            }
        }
    } else {
        if input[6] < 0.002044038_f64 {
            if input[6] < 0.0010934564_f64 {
                if input[5] < 697195.0_f64 {
                    if input[6] < 0.00057418615_f64 {
                        var7 = 0.19865216_f64;
                    } else {
                        var7 = 0.19758527_f64;
                    }
                } else {
                    var7 = 0.19245377_f64;
                }
            } else {
                if input[6] < 0.0015713421_f64 {
                    var7 = 0.19700377_f64;
                } else {
                    var7 = 0.1964577_f64;
                }
            }
        } else {
            if input[1] < 624.0_f64 {
                var7 = 0.19405814_f64;
            } else {
                if input[6] < 0.0024632385_f64 {
                    var7 = 0.19592635_f64;
                } else {
                    var7 = 0.19523877_f64;
                }
            }
        }
    }
    let var8: f64;
    if input[1] < 388.0_f64 {
        if input[5] < 271.0_f64 {
            if input[4] < 34.0_f64 {
                if input[7] < 90.0_f64 {
                    var8 = 0.17620164_f64;
                } else {
                    var8 = 0.1808861_f64;
                }
            } else {
                var8 = 0.18446425_f64;
            }
        } else {
            if input[1] < 200.0_f64 {
                if input[0] < 5.0_f64 {
                    var8 = 0.18596059_f64;
                } else {
                    var8 = 0.18853372_f64;
                }
            } else {
                if input[0] < 3.0_f64 {
                    var8 = 0.1890825_f64;
                } else {
                    if input[1] < 293.0_f64 {
                        var8 = 0.19031905_f64;
                    } else {
                        var8 = 0.1917573_f64;
                    }
                }
            }
        }
    } else {
        if input[6] < 0.0020304979_f64 {
            if input[6] < 0.0011092727_f64 {
                if input[5] < 697195.0_f64 {
                    if input[6] < 0.00057418615_f64 {
                        var8 = 0.19835597_f64;
                    } else {
                        var8 = 0.19704603_f64;
                    }
                } else {
                    if input[0] < 40.0_f64 {
                        var8 = 0.18538505_f64;
                    } else {
                        var8 = 0.19202742_f64;
                    }
                }
            } else {
                if input[0] < 1.0_f64 {
                    var8 = 0.19521694_f64;
                } else {
                    if input[6] < 0.0015594165_f64 {
                        var8 = 0.19651403_f64;
                    } else {
                        var8 = 0.19582205_f64;
                    }
                }
            }
        } else {
            if input[1] < 732.0_f64 {
                if input[0] < 1.0_f64 {
                    var8 = 0.19091062_f64;
                } else {
                    if input[1] < 525.0_f64 {
                        var8 = 0.19271293_f64;
                    } else {
                        var8 = 0.19374052_f64;
                    }
                }
            } else {
                if input[6] < 0.0024632385_f64 {
                    var8 = 0.19508931_f64;
                } else {
                    var8 = 0.19434641_f64;
                }
            }
        }
    }
    let var9: f64;
    if input[1] < 388.0_f64 {
        if input[1] < 114.0_f64 {
            if input[4] < 34.0_f64 {
                if input[7] < 90.0_f64 {
                    var9 = 0.17161761_f64;
                } else {
                    var9 = 0.17709665_f64;
                }
            } else {
                if input[2] < 164.0_f64 {
                    if input[5] < 203.0_f64 {
                        var9 = 0.18003792_f64;
                    } else {
                        var9 = 0.1824971_f64;
                    }
                } else {
                    var9 = 0.06979782_f64;
                }
            }
        } else {
            if input[1] < 200.0_f64 {
                if input[0] < 5.0_f64 {
                    var9 = 0.18312028_f64;
                } else {
                    var9 = 0.18615885_f64;
                }
            } else {
                if input[0] < 3.0_f64 {
                    var9 = 0.18681028_f64;
                } else {
                    if input[1] < 293.0_f64 {
                        var9 = 0.18828963_f64;
                    } else {
                        var9 = 0.19001505_f64;
                    }
                }
            }
        }
    } else {
        if input[6] < 0.002044038_f64 {
            if input[6] < 0.0011092727_f64 {
                if input[5] < 697195.0_f64 {
                    if input[6] < 0.00057418615_f64 {
                        var9 = 0.19799529_f64;
                    } else {
                        var9 = 0.19640265_f64;
                    }
                } else {
                    if input[0] < 40.0_f64 {
                        var9 = 0.18241116_f64;
                    } else {
                        var9 = 0.19033995_f64;
                    }
                }
            } else {
                if input[6] < 0.0015713421_f64 {
                    if input[0] < 1.0_f64 {
                        var9 = 0.19456258_f64;
                    } else {
                        var9 = 0.19574699_f64;
                    }
                } else {
                    if input[0] < 1.0_f64 {
                        var9 = 0.19314088_f64;
                    } else {
                        var9 = 0.19489108_f64;
                    }
                }
            }
        } else {
            if input[1] < 724.0_f64 {
                if input[1] < 483.0_f64 {
                    var9 = 0.19079804_f64;
                } else {
                    var9 = 0.1921305_f64;
                }
            } else {
                if input[0] < 1.0_f64 {
                    var9 = 0.19090377_f64;
                } else {
                    if input[6] < 0.0024632385_f64 {
                        var9 = 0.19411221_f64;
                    } else {
                        var9 = 0.19318192_f64;
                    }
                }
            }
        }
    }
    let var10: f64;
    if input[1] < 388.0_f64 {
        if input[5] < 271.0_f64 {
            if input[5] < 138.0_f64 {
                if input[7] < 90.0_f64 {
                    var10 = 0.1663057_f64;
                } else {
                    var10 = 0.17266397_f64;
                }
            } else {
                if input[0] < 5.0_f64 {
                    var10 = 0.17561103_f64;
                } else {
                    var10 = 0.17872237_f64;
                }
            }
        } else {
            if input[1] < 200.0_f64 {
                if input[0] < 5.0_f64 {
                    var10 = 0.17969505_f64;
                } else {
                    var10 = 0.18332468_f64;
                }
            } else {
                if input[0] < 3.0_f64 {
                    var10 = 0.18410133_f64;
                } else {
                    if input[1] < 293.0_f64 {
                        var10 = 0.18586354_f64;
                    } else {
                        var10 = 0.18792559_f64;
                    }
                }
            }
        }
    } else {
        if input[6] < 0.002044038_f64 {
            if input[6] < 0.0011092727_f64 {
                if input[5] < 697195.0_f64 {
                    if input[6] < 0.0006176806_f64 {
                        var10 = 0.19740263_f64;
                    } else {
                        var10 = 0.19557369_f64;
                    }
                } else {
                    if input[0] < 40.0_f64 {
                        var10 = 0.17889564_f64;
                    } else {
                        var10 = 0.18831515_f64;
                    }
                }
            } else {
                if input[6] < 0.0015713421_f64 {
                    if input[0] < 1.0_f64 {
                        var10 = 0.19339478_f64;
                    } else {
                        var10 = 0.19482741_f64;
                    }
                } else {
                    if input[0] < 1.0_f64 {
                        var10 = 0.19167964_f64;
                    } else {
                        var10 = 0.19379175_f64;
                    }
                }
            }
        } else {
            if input[1] < 732.0_f64 {
                if input[0] < 1.0_f64 {
                    var10 = 0.18663348_f64;
                } else {
                    if input[1] < 525.0_f64 {
                        var10 = 0.18930244_f64;
                    } else {
                        var10 = 0.19079255_f64;
                    }
                }
            } else {
                if input[0] < 1.0_f64 {
                    var10 = 0.18907715_f64;
                } else {
                    if input[6] < 0.0026666143_f64 {
                        var10 = 0.19269456_f64;
                    } else {
                        var10 = 0.19148771_f64;
                    }
                }
            }
        }
    }
    let var11: f64;
    if input[1] < 412.0_f64 {
        if input[1] < 152.0_f64 {
            if input[4] < 35.0_f64 {
                if input[7] < 96.0_f64 {
                    var11 = 0.16119772_f64;
                } else {
                    var11 = 0.1681819_f64;
                }
            } else {
                if input[5] < 232.0_f64 {
                    var11 = 0.17249832_f64;
                } else {
                    if input[0] < 6.0_f64 {
                        var11 = 0.17438549_f64;
                    } else {
                        var11 = 0.17829253_f64;
                    }
                }
            }
        } else {
            if input[1] < 252.0_f64 {
                if input[0] < 4.0_f64 {
                    var11 = 0.17780094_f64;
                } else {
                    var11 = 0.1816787_f64;
                }
            } else {
                if input[0] < 3.0_f64 {
                    var11 = 0.18205293_f64;
                } else {
                    var11 = 0.18511093_f64;
                }
            }
        }
    } else {
        if input[6] < 0.0020304979_f64 {
            if input[6] < 0.0011092727_f64 {
                if input[5] < 697195.0_f64 {
                    if input[6] < 0.0006176806_f64 {
                        var11 = 0.1968358_f64;
                    } else {
                        var11 = 0.19461758_f64;
                    }
                } else {
                    if input[0] < 40.0_f64 {
                        var11 = 0.17476717_f64;
                    } else {
                        var11 = 0.18589465_f64;
                    }
                }
            } else {
                if input[6] < 0.0015713421_f64 {
                    if input[0] < 1.0_f64 {
                        var11 = 0.19198553_f64;
                    } else {
                        var11 = 0.19371478_f64;
                    }
                } else {
                    if input[0] < 1.0_f64 {
                        var11 = 0.18995808_f64;
                    } else {
                        var11 = 0.19247894_f64;
                    }
                }
            }
        } else {
            if input[1] < 732.0_f64 {
                if input[0] < 1.0_f64 {
                    var11 = 0.18414968_f64;
                } else {
                    if input[1] < 525.0_f64 {
                        var11 = 0.18729232_f64;
                    } else {
                        var11 = 0.1888571_f64;
                    }
                }
            } else {
                if input[6] < 0.0024632385_f64 {
                    if input[0] < 1.0_f64 {
                        var11 = 0.18760197_f64;
                    } else {
                        var11 = 0.19136713_f64;
                    }
                } else {
                    if input[0] < 1.0_f64 {
                        var11 = 0.18462722_f64;
                    } else {
                        var11 = 0.18999259_f64;
                    }
                }
            }
        }
    }
    let var12: f64;
    if input[1] < 412.0_f64 {
        if input[1] < 152.0_f64 {
            if input[7] < 147.0_f64 {
                if input[7] < 96.0_f64 {
                    if input[4] < 19.0_f64 {
                        var12 = 0.14800602_f64;
                    } else {
                        var12 = 0.15602611_f64;
                    }
                } else {
                    var12 = 0.16281234_f64;
                }
            } else {
                if input[5] < 232.0_f64 {
                    if input[0] < 5.0_f64 {
                        var12 = 0.16450123_f64;
                    } else {
                        var12 = 0.16894364_f64;
                    }
                } else {
                    if input[0] < 6.0_f64 {
                        var12 = 0.16950634_f64;
                    } else {
                        var12 = 0.17405662_f64;
                    }
                }
            }
        } else {
            if input[1] < 252.0_f64 {
                if input[0] < 4.0_f64 {
                    var12 = 0.17348191_f64;
                } else {
                    var12 = 0.17802879_f64;
                }
            } else {
                if input[0] < 3.0_f64 {
                    var12 = 0.17846975_f64;
                } else {
                    var12 = 0.18208331_f64;
                }
            }
        }
    } else {
        if input[6] < 0.002044038_f64 {
            if input[6] < 0.0011240434_f64 {
                if input[5] < 697195.0_f64 {
                    if input[6] < 0.0006176806_f64 {
                        var12 = 0.19614746_f64;
                    } else {
                        var12 = 0.19343434_f64;
                    }
                } else {
                    if input[0] < 40.0_f64 {
                        var12 = 0.16995652_f64;
                    } else {
                        var12 = 0.18301411_f64;
                    }
                }
            } else {
                if input[0] < 1.0_f64 {
                    if input[4] < 234.0_f64 {
                        var12 = 0.18771979_f64;
                    } else {
                        var12 = 0.19039698_f64;
                    }
                } else {
                    if input[6] < 0.0015713421_f64 {
                        var12 = 0.19235037_f64;
                    } else {
                        var12 = 0.190865_f64;
                    }
                }
            }
        } else {
            if input[1] < 732.0_f64 {
                if input[0] < 1.0_f64 {
                    var12 = 0.18088692_f64;
                } else {
                    if input[1] < 525.0_f64 {
                        var12 = 0.18467489_f64;
                    } else {
                        var12 = 0.18654089_f64;
                    }
                }
            } else {
                if input[6] < 0.0027479425_f64 {
                    if input[0] < 1.0_f64 {
                        var12 = 0.18452376_f64;
                    } else {
                        var12 = 0.1892062_f64;
                    }
                } else {
                    var12 = 0.18727992_f64;
                }
            }
        }
    }
    let var13: f64;
    if input[1] < 412.0_f64 {
        if input[1] < 152.0_f64 {
            if input[5] < 182.0_f64 {
                if input[4] < 27.0_f64 {
                    if input[4] < 22.0_f64 {
                        var13 = 0.14287701_f64;
                    } else {
                        var13 = 0.15063244_f64;
                    }
                } else {
                    if input[6] < 0.014563107_f64 {
                        var13 = 0.15956298_f64;
                    } else {
                        var13 = 0.15544872_f64;
                    }
                }
            } else {
                if input[0] < 5.0_f64 {
                    if input[1] < 87.0_f64 {
                        var13 = 0.15628348_f64;
                    } else {
                        var13 = 0.16308345_f64;
                    }
                } else {
                    if input[5] < 261.0_f64 {
                        var13 = 0.16560704_f64;
                    } else {
                        var13 = 0.16938528_f64;
                    }
                }
            }
        } else {
            if input[1] < 240.0_f64 {
                if input[0] < 4.0_f64 {
                    var13 = 0.1681567_f64;
                } else {
                    var13 = 0.17342837_f64;
                }
            } else {
                if input[0] < 3.0_f64 {
                    var13 = 0.17406313_f64;
                } else {
                    if input[1] < 299.0_f64 {
                        var13 = 0.17644387_f64;
                    } else {
                        var13 = 0.17930542_f64;
                    }
                }
            }
        }
    } else {
        if input[6] < 0.002044038_f64 {
            if input[6] < 0.0011240434_f64 {
                if input[5] < 697195.0_f64 {
                    if input[6] < 0.0006176806_f64 {
                        var13 = 0.1953126_f64;
                    } else {
                        var13 = 0.19203319_f64;
                    }
                } else {
                    if input[0] < 40.0_f64 {
                        var13 = 0.16440187_f64;
                    } else {
                        var13 = 0.17960438_f64;
                    }
                }
            } else {
                if input[0] < 1.0_f64 {
                    if input[4] < 234.0_f64 {
                        var13 = 0.1851843_f64;
                    } else {
                        var13 = 0.18838307_f64;
                    }
                } else {
                    if input[6] < 0.0015713421_f64 {
                        var13 = 0.19072795_f64;
                    } else {
                        var13 = 0.18894397_f64;
                    }
                }
            }
        } else {
            if input[1] < 732.0_f64 {
                if input[0] < 1.0_f64 {
                    var13 = 0.1770985_f64;
                } else {
                    if input[1] < 525.0_f64 {
                        var13 = 0.18156669_f64;
                    } else {
                        var13 = 0.18378083_f64;
                    }
                }
            } else {
                if input[6] < 0.0027479425_f64 {
                    if input[0] < 1.0_f64 {
                        var13 = 0.18138863_f64;
                    } else {
                        var13 = 0.18695799_f64;
                    }
                } else {
                    var13 = 0.18466012_f64;
                }
            }
        }
    }
    let var14: f64;
    if input[1] < 412.0_f64 {
        if input[1] < 157.0_f64 {
            if input[5] < 182.0_f64 {
                if input[4] < 27.0_f64 {
                    if input[4] < 22.0_f64 {
                        var14 = 0.13411354_f64;
                    } else {
                        var14 = 0.14261203_f64;
                    }
                } else {
                    if input[6] < 0.014563107_f64 {
                        var14 = 0.15256958_f64;
                    } else {
                        var14 = 0.14795846_f64;
                    }
                }
            } else {
                if input[0] < 5.0_f64 {
                    if input[1] < 87.0_f64 {
                        var14 = 0.14890037_f64;
                    } else {
                        var14 = 0.15657423_f64;
                    }
                } else {
                    if input[5] < 261.0_f64 {
                        var14 = 0.15941423_f64;
                    } else {
                        var14 = 0.1639748_f64;
                    }
                }
            }
        } else {
            if input[1] < 252.0_f64 {
                if input[0] < 4.0_f64 {
                    var14 = 0.16297802_f64;
                } else {
                    if input[1] < 200.0_f64 {
                        var14 = 0.16716808_f64;
                    } else {
                        var14 = 0.17040709_f64;
                    }
                }
            } else {
                if input[0] < 3.0_f64 {
                    var14 = 0.16937126_f64;
                } else {
                    if input[1] < 306.0_f64 {
                        var14 = 0.17234534_f64;
                    } else {
                        var14 = 0.17533682_f64;
                    }
                }
            }
        }
    } else {
        if input[6] < 0.001969262_f64 {
            if input[6] < 0.0011092727_f64 {
                if input[5] < 697195.0_f64 {
                    if input[7] < 4879.0_f64 {
                        var14 = 0.19058876_f64;
                    } else {
                        var14 = 0.19507015_f64;
                    }
                } else {
                    if input[0] < 40.0_f64 {
                        var14 = 0.15805574_f64;
                    } else {
                        var14 = 0.17559387_f64;
                    }
                }
            } else {
                if input[0] < 1.0_f64 {
                    if input[4] < 234.0_f64 {
                        var14 = 0.18232241_f64;
                    } else {
                        var14 = 0.1860633_f64;
                    }
                } else {
                    if input[6] < 0.0015713421_f64 {
                        var14 = 0.18880954_f64;
                    } else {
                        var14 = 0.18680711_f64;
                    }
                }
            }
        } else {
            if input[1] < 732.0_f64 {
                if input[0] < 1.0_f64 {
                    if input[6] < 0.003075772_f64 {
                        var14 = 0.17566375_f64;
                    } else {
                        var14 = 0.16769452_f64;
                    }
                } else {
                    if input[1] < 525.0_f64 {
                        var14 = 0.1778969_f64;
                    } else {
                        var14 = 0.18050867_f64;
                    }
                }
            } else {
                if input[6] < 0.0024632385_f64 {
                    if input[0] < 1.0_f64 {
                        var14 = 0.17877655_f64;
                    } else {
                        var14 = 0.18490352_f64;
                    }
                } else {
                    if input[0] < 1.0_f64 {
                        var14 = 0.17329268_f64;
                    } else {
                        var14 = 0.18241231_f64;
                    }
                }
            }
        }
    }
    let var15: f64;
    if input[1] < 420.0_f64 {
        if input[1] < 157.0_f64 {
            if input[5] < 182.0_f64 {
                if input[4] < 27.0_f64 {
                    if input[6] < 0.018968457_f64 {
                        var15 = 0.13649635_f64;
                    } else {
                        var15 = 0.1270402_f64;
                    }
                } else {
                    if input[6] < 0.014563107_f64 {
                        var15 = 0.1447547_f64;
                    } else {
                        var15 = 0.13966286_f64;
                    }
                }
            } else {
                if input[0] < 5.0_f64 {
                    if input[1] < 87.0_f64 {
                        var15 = 0.14071125_f64;
                    } else {
                        var15 = 0.14921553_f64;
                    }
                } else {
                    if input[5] < 271.0_f64 {
                        var15 = 0.15270486_f64;
                    } else {
                        var15 = 0.15783952_f64;
                    }
                }
            }
        } else {
            if input[1] < 252.0_f64 {
                if input[0] < 4.0_f64 {
                    if input[1] < 200.0_f64 {
                        var15 = 0.15348718_f64;
                    } else {
                        var15 = 0.15863432_f64;
                    }
                } else {
                    if input[1] < 200.0_f64 {
                        var15 = 0.16119559_f64;
                    } else {
                        var15 = 0.16491017_f64;
                    }
                }
            } else {
                if input[0] < 3.0_f64 {
                    if input[1] < 312.0_f64 {
                        var15 = 0.1603071_f64;
                    } else {
                        var15 = 0.16575915_f64;
                    }
                } else {
                    if input[1] < 306.0_f64 {
                        var15 = 0.16714472_f64;
                    } else {
                        var15 = 0.17072764_f64;
                    }
                }
            }
        }
    } else {
        if input[6] < 0.001969262_f64 {
            if input[6] < 0.0011092727_f64 {
                if input[5] < 697195.0_f64 {
                    if input[6] < 0.00057418615_f64 {
                        var15 = 0.19348946_f64;
                    } else {
                        var15 = 0.1884887_f64;
                    }
                } else {
                    if input[0] < 40.0_f64 {
                        var15 = 0.15089315_f64;
                    } else {
                        var15 = 0.17091207_f64;
                    }
                }
            } else {
                if input[0] < 1.0_f64 {
                    if input[4] < 234.0_f64 {
                        var15 = 0.17878759_f64;
                    } else {
                        var15 = 0.18321352_f64;
                    }
                } else {
                    if input[6] < 0.0015713421_f64 {
                        var15 = 0.18648408_f64;
                    } else {
                        var15 = 0.18409742_f64;
                    }
                }
            }
        } else {
            if input[1] < 732.0_f64 {
                if input[0] < 1.0_f64 {
                    if input[6] < 0.003075772_f64 {
                        var15 = 0.17106059_f64;
                    } else {
                        var15 = 0.16183734_f64;
                    }
                } else {
                    if input[1] < 553.0_f64 {
                        var15 = 0.17404033_f64;
                    } else {
                        var15 = 0.17687164_f64;
                    }
                }
            } else {
                if input[6] < 0.0024632385_f64 {
                    if input[0] < 1.0_f64 {
                        var15 = 0.17462395_f64;
                    } else {
                        var15 = 0.18183745_f64;
                    }
                } else {
                    if input[0] < 1.0_f64 {
                        var15 = 0.16824715_f64;
                    } else {
                        var15 = 0.17889296_f64;
                    }
                }
            }
        }
    }
    let var16: f64;
    if input[1] < 420.0_f64 {
        if input[1] < 157.0_f64 {
            if input[5] < 182.0_f64 {
                if input[4] < 27.0_f64 {
                    if input[4] < 19.0_f64 {
                        var16 = 0.109716855_f64;
                    } else {
                        var16 = 0.123054676_f64;
                    }
                } else {
                    if input[6] < 0.013267813_f64 {
                        var16 = 0.13758242_f64;
                    } else {
                        var16 = 0.1315524_f64;
                    }
                }
            } else {
                if input[0] < 4.0_f64 {
                    if input[6] < 0.009337069_f64 {
                        var16 = 0.14198488_f64;
                    } else {
                        var16 = 0.13435733_f64;
                    }
                } else {
                    if input[1] < 105.0_f64 {
                        var16 = 0.14365463_f64;
                    } else {
                        var16 = 0.14946474_f64;
                    }
                }
            }
        } else {
            if input[1] < 252.0_f64 {
                if input[0] < 4.0_f64 {
                    if input[1] < 179.0_f64 {
                        var16 = 0.143247_f64;
                    } else {
                        var16 = 0.15044852_f64;
                    }
                } else {
                    if input[1] < 200.0_f64 {
                        var16 = 0.15440999_f64;
                    } else {
                        var16 = 0.15862045_f64;
                    }
                }
            } else {
                if input[0] < 3.0_f64 {
                    if input[1] < 312.0_f64 {
                        var16 = 0.15341046_f64;
                    } else {
                        var16 = 0.15958813_f64;
                    }
                } else {
                    if input[1] < 326.0_f64 {
                        var16 = 0.1617952_f64;
                    } else {
                        var16 = 0.16568346_f64;
                    }
                }
            }
        }
    } else {
        if input[6] < 0.001969262_f64 {
            if input[6] < 0.0011240434_f64 {
                if input[5] < 697195.0_f64 {
                    if input[6] < 0.0006176806_f64 {
                        var16 = 0.19161384_f64;
                    } else {
                        var16 = 0.18589959_f64;
                    }
                } else {
                    if input[0] < 40.0_f64 {
                        var16 = 0.14292036_f64;
                    } else {
                        var16 = 0.1654947_f64;
                    }
                }
            } else {
                if input[0] < 1.0_f64 {
                    if input[4] < 234.0_f64 {
                        var16 = 0.17463593_f64;
                    } else {
                        var16 = 0.17971104_f64;
                    }
                } else {
                    if input[6] < 0.0015713421_f64 {
                        var16 = 0.18366979_f64;
                    } else {
                        var16 = 0.18088306_f64;
                    }
                }
            }
        } else {
            if input[1] < 732.0_f64 {
                if input[0] < 1.0_f64 {
                    if input[6] < 0.003075772_f64 {
                        var16 = 0.16566658_f64;
                    } else {
                        var16 = 0.155144_f64;
                    }
                } else {
                    if input[1] < 553.0_f64 {
                        var16 = 0.16910563_f64;
                    } else {
                        var16 = 0.17239706_f64;
                    }
                }
            } else {
                if input[6] < 0.0024632385_f64 {
                    if input[0] < 1.0_f64 {
                        var16 = 0.16978496_f64;
                    } else {
                        var16 = 0.17821558_f64;
                    }
                } else {
                    if input[0] < 1.0_f64 {
                        var16 = 0.16243981_f64;
                    } else {
                        var16 = 0.17475836_f64;
                    }
                }
            }
        }
    }
    let var17: f64;
    if input[1] < 433.0_f64 {
        if input[1] < 157.0_f64 {
            if input[5] < 182.0_f64 {
                if input[6] < 0.018968457_f64 {
                    if input[4] < 35.0_f64 {
                        var17 = 0.12080009_f64;
                    } else {
                        var17 = 0.1273963_f64;
                    }
                } else {
                    if input[7] < 81.0_f64 {
                        var17 = 0.10246327_f64;
                    } else {
                        var17 = 0.113588765_f64;
                    }
                }
            } else {
                if input[0] < 5.0_f64 {
                    if input[1] < 78.0_f64 {
                        var17 = 0.11391552_f64;
                    } else {
                        var17 = 0.13154148_f64;
                    }
                } else {
                    if input[5] < 291.0_f64 {
                        var17 = 0.13693736_f64;
                    } else {
                        var17 = 0.14354749_f64;
                    }
                }
            }
        } else {
            if input[1] < 293.0_f64 {
                if input[0] < 5.0_f64 {
                    if input[1] < 200.0_f64 {
                        var17 = 0.13796665_f64;
                    } else {
                        var17 = 0.14603859_f64;
                    }
                } else {
                    if input[1] < 212.0_f64 {
                        var17 = 0.14831392_f64;
                    } else {
                        var17 = 0.1537803_f64;
                    }
                }
            } else {
                if input[0] < 3.0_f64 {
                    if input[0] < 1.0_f64 {
                        var17 = 0.14406542_f64;
                    } else {
                        var17 = 0.15400676_f64;
                    }
                } else {
                    if input[0] < 7.0_f64 {
                        var17 = 0.15747763_f64;
                    } else {
                        var17 = 0.16082864_f64;
                    }
                }
            }
        }
    } else {
        if input[6] < 0.0017915583_f64 {
            if input[5] < 697195.0_f64 {
                if input[6] < 0.00077335845_f64 {
                    if input[7] < 9375.0_f64 {
                        var17 = 0.18597415_f64;
                    } else {
                        var17 = 0.1920754_f64;
                    }
                } else {
                    if input[6] < 0.0012896123_f64 {
                        var17 = 0.18167017_f64;
                    } else {
                        var17 = 0.1782432_f64;
                    }
                }
            } else {
                if input[0] < 40.0_f64 {
                    if input[0] < 39.0_f64 {
                        var17 = 0.13555369_f64;
                    } else {
                        var17 = 0.021934653_f64;
                    }
                } else {
                    if input[1] < 920931.0_f64 {
                        var17 = 0.17178385_f64;
                    } else {
                        var17 = 0.14583255_f64;
                    }
                }
            }
        } else {
            if input[6] < 0.0025942195_f64 {
                if input[0] < 1.0_f64 {
                    if input[2] < 2811.0_f64 {
                        var17 = 0.16488254_f64;
                    } else {
                        var17 = 0.060713198_f64;
                    }
                } else {
                    if input[6] < 0.0021541058_f64 {
                        var17 = 0.1755626_f64;
                    } else {
                        var17 = 0.17258444_f64;
                    }
                }
            } else {
                if input[0] < 1.0_f64 {
                    var17 = 0.15354936_f64;
                } else {
                    if input[6] < 0.0032207866_f64 {
                        var17 = 0.16931269_f64;
                    } else {
                        var17 = 0.16500655_f64;
                    }
                }
            }
        }
    }
    let var18: f64;
    if input[1] < 441.0_f64 {
        if input[1] < 157.0_f64 {
            if input[1] < 78.0_f64 {
                if input[4] < 27.0_f64 {
                    if input[7] < 69.0_f64 {
                        var18 = 0.08854776_f64;
                    } else {
                        var18 = 0.10259298_f64;
                    }
                } else {
                    if input[4] < 39.0_f64 {
                        var18 = 0.11227093_f64;
                    } else {
                        var18 = 0.1199556_f64;
                    }
                }
            } else {
                if input[0] < 6.0_f64 {
                    if input[0] < 2.0_f64 {
                        var18 = 0.11666012_f64;
                    } else {
                        var18 = 0.12460325_f64;
                    }
                } else {
                    if input[5] < 291.0_f64 {
                        var18 = 0.12885527_f64;
                    } else {
                        var18 = 0.13541727_f64;
                    }
                }
            }
        } else {
            if input[1] < 293.0_f64 {
                if input[0] < 3.0_f64 {
                    if input[1] < 179.0_f64 {
                        var18 = 0.1210647_f64;
                    } else {
                        var18 = 0.13343501_f64;
                    }
                } else {
                    if input[1] < 206.0_f64 {
                        var18 = 0.13820596_f64;
                    } else {
                        var18 = 0.1446316_f64;
                    }
                }
            } else {
                if input[0] < 1.0_f64 {
                    if input[4] < 81.0_f64 {
                        var18 = 0.11903961_f64;
                    } else {
                        var18 = 0.13844997_f64;
                    }
                } else {
                    if input[0] < 7.0_f64 {
                        var18 = 0.14932859_f64;
                    } else {
                        var18 = 0.15410969_f64;
                    }
                }
            }
        }
    } else {
        if input[6] < 0.0017915583_f64 {
            if input[5] < 697195.0_f64 {
                if input[6] < 0.00077335845_f64 {
                    if input[7] < 4879.0_f64 {
                        var18 = 0.18258783_f64;
                    } else {
                        var18 = 0.18934624_f64;
                    }
                } else {
                    if input[6] < 0.0012896123_f64 {
                        var18 = 0.17801861_f64;
                    } else {
                        var18 = 0.1739982_f64;
                    }
                }
            } else {
                if input[0] < 40.0_f64 {
                    if input[0] < 39.0_f64 {
                        var18 = 0.12623765_f64;
                    } else {
                        var18 = 0.018879727_f64;
                    }
                } else {
                    if input[1] < 920931.0_f64 {
                        var18 = 0.16650675_f64;
                    } else {
                        var18 = 0.13734664_f64;
                    }
                }
            }
        } else {
            if input[6] < 0.0025942195_f64 {
                if input[0] < 1.0_f64 {
                    if input[4] < 160.0_f64 {
                        var18 = 0.15398155_f64;
                    } else {
                        var18 = 0.16144392_f64;
                    }
                } else {
                    if input[6] < 0.0021541058_f64 {
                        var18 = 0.17087288_f64;
                    } else {
                        var18 = 0.16742033_f64;
                    }
                }
            } else {
                if input[0] < 1.0_f64 {
                    if input[2] < 405.0_f64 {
                        var18 = 0.048133392_f64;
                    } else {
                        var18 = 0.14609705_f64;
                    }
                } else {
                    if input[6] < 0.0032207866_f64 {
                        var18 = 0.16366541_f64;
                    } else {
                        var18 = 0.1588847_f64;
                    }
                }
            }
        }
    }
    let var19: f64;
    if input[1] < 450.0_f64 {
        if input[1] < 157.0_f64 {
            if input[5] < 203.0_f64 {
                if input[4] < 28.0_f64 {
                    if input[6] < 0.018968457_f64 {
                        var19 = 0.09753464_f64;
                    } else {
                        var19 = 0.08564949_f64;
                    }
                } else {
                    if input[4] < 39.0_f64 {
                        var19 = 0.10263006_f64;
                    } else {
                        var19 = 0.1098912_f64;
                    }
                }
            } else {
                if input[0] < 4.0_f64 {
                    if input[1] < 78.0_f64 {
                        var19 = 0.010850553_f64;
                    } else {
                        var19 = 0.1107957_f64;
                    }
                } else {
                    if input[5] < 291.0_f64 {
                        var19 = 0.11838136_f64;
                    } else {
                        var19 = 0.12463688_f64;
                    }
                }
            }
        } else {
            if input[1] < 299.0_f64 {
                if input[0] < 5.0_f64 {
                    if input[1] < 200.0_f64 {
                        var19 = 0.118705094_f64;
                    } else {
                        var19 = 0.12827723_f64;
                    }
                } else {
                    if input[1] < 228.0_f64 {
                        var19 = 0.13188574_f64;
                    } else {
                        var19 = 0.13884327_f64;
                    }
                }
            } else {
                if input[0] < 1.0_f64 {
                    if input[3] < 986.0_f64 {
                        var19 = 0.0024273554_f64;
                    } else {
                        var19 = 0.12664622_f64;
                    }
                } else {
                    if input[0] < 6.0_f64 {
                        var19 = 0.14137957_f64;
                    } else {
                        var19 = 0.14625707_f64;
                    }
                }
            }
        }
    } else {
        if input[6] < 0.0017915583_f64 {
            if input[5] < 697195.0_f64 {
                if input[6] < 0.00077335845_f64 {
                    if input[7] < 9375.0_f64 {
                        var19 = 0.17970508_f64;
                    } else {
                        var19 = 0.18839619_f64;
                    }
                } else {
                    if input[6] < 0.0011850469_f64 {
                        var19 = 0.17429465_f64;
                    } else {
                        var19 = 0.16951953_f64;
                    }
                }
            } else {
                if input[0] < 40.0_f64 {
                    if input[0] < 30.0_f64 {
                        var19 = 0.12236964_f64;
                    } else {
                        var19 = 0.08632722_f64;
                    }
                } else {
                    if input[1] < 920931.0_f64 {
                        var19 = 0.16045392_f64;
                    } else {
                        var19 = 0.12814546_f64;
                    }
                }
            }
        } else {
            if input[6] < 0.0025942195_f64 {
                if input[0] < 1.0_f64 {
                    if input[6] < 0.0021541058_f64 {
                        var19 = 0.15474068_f64;
                    } else {
                        var19 = 0.14624564_f64;
                    }
                } else {
                    if input[6] < 0.0021541058_f64 {
                        var19 = 0.16544561_f64;
                    } else {
                        var19 = 0.16148295_f64;
                    }
                }
            } else {
                if input[0] < 1.0_f64 {
                    if input[2] < 405.0_f64 {
                        var19 = 0.04357332_f64;
                    } else {
                        var19 = 0.13804585_f64;
                    }
                } else {
                    if input[1] < 636.0_f64 {
                        var19 = 0.15145756_f64;
                    } else {
                        var19 = 0.15687965_f64;
                    }
                }
            }
        }
    }
    let var20: f64;
    if input[1] < 483.0_f64 {
        if input[1] < 174.0_f64 {
            if input[5] < 203.0_f64 {
                if input[3] < 162.0_f64 {
                    if input[4] < 22.0_f64 {
                        var20 = 0.07155_f64;
                    } else {
                        var20 = 0.084579766_f64;
                    }
                } else {
                    if input[0] < 8.0_f64 {
                        var20 = 0.09160829_f64;
                    } else {
                        var20 = 0.10074224_f64;
                    }
                }
            } else {
                if input[0] < 5.0_f64 {
                    if input[1] < 78.0_f64 {
                        var20 = 0.009068408_f64;
                    } else {
                        var20 = 0.102523506_f64;
                    }
                } else {
                    if input[5] < 291.0_f64 {
                        var20 = 0.108946316_f64;
                    } else {
                        var20 = 0.11668628_f64;
                    }
                }
            }
        } else {
            if input[1] < 299.0_f64 {
                if input[0] < 5.0_f64 {
                    if input[0] < 2.0_f64 {
                        var20 = 0.11012739_f64;
                    } else {
                        var20 = 0.119706884_f64;
                    }
                } else {
                    if input[5] < 553.0_f64 {
                        var20 = 0.12407879_f64;
                    } else {
                        var20 = 0.1308466_f64;
                    }
                }
            } else {
                if input[0] < 1.0_f64 {
                    if input[3] < 986.0_f64 {
                        var20 = 0.0021055625_f64;
                    } else {
                        var20 = 0.11733158_f64;
                    }
                } else {
                    if input[1] < 388.0_f64 {
                        var20 = 0.13285886_f64;
                    } else {
                        var20 = 0.13874319_f64;
                    }
                }
            }
        }
    } else {
        if input[6] < 0.0017777072_f64 {
            if input[5] < 697195.0_f64 {
                if input[6] < 0.00077335845_f64 {
                    if input[7] < 9375.0_f64 {
                        var20 = 0.1757101_f64;
                    } else {
                        var20 = 0.18599112_f64;
                    }
                } else {
                    if input[6] < 0.0012896123_f64 {
                        var20 = 0.16876636_f64;
                    } else {
                        var20 = 0.16342883_f64;
                    }
                }
            } else {
                if input[0] < 80.0_f64 {
                    if input[6] < 0.00016297853_f64 {
                        var20 = 0.10361697_f64;
                    } else {
                        var20 = 0.16776197_f64;
                    }
                } else {
                    if input[1] < 920931.0_f64 {
                        var20 = 0.16023438_f64;
                    } else {
                        var20 = 0.12379229_f64;
                    }
                }
            }
        } else {
            if input[6] < 0.0024632385_f64 {
                if input[0] < 1.0_f64 {
                    if input[2] < 2811.0_f64 {
                        var20 = 0.1446169_f64;
                    } else {
                        var20 = 0.026438883_f64;
                    }
                } else {
                    if input[6] < 0.0020587966_f64 {
                        var20 = 0.15981059_f64;
                    } else {
                        var20 = 0.15602106_f64;
                    }
                }
            } else {
                if input[0] < 1.0_f64 {
                    if input[6] < 0.003075772_f64 {
                        var20 = 0.13319546_f64;
                    } else {
                        var20 = 0.12318734_f64;
                    }
                } else {
                    if input[6] < 0.0032207866_f64 {
                        var20 = 0.15064809_f64;
                    } else {
                        var20 = 0.14457321_f64;
                    }
                }
            }
        }
    }
    let var21: f64;
    if input[1] < 483.0_f64 {
        if input[1] < 179.0_f64 {
            if input[6] < 0.012462612_f64 {
                if input[0] < 3.0_f64 {
                    if input[6] < 0.008472906_f64 {
                        var21 = 0.09216739_f64;
                    } else {
                        var21 = 0.08200967_f64;
                    }
                } else {
                    if input[1] < 114.0_f64 {
                        var21 = 0.094769634_f64;
                    } else {
                        var21 = 0.10463633_f64;
                    }
                }
            } else {
                if input[6] < 0.018968457_f64 {
                    if input[1] < 58.0_f64 {
                        var21 = 0.07890958_f64;
                    } else {
                        var21 = 0.086374514_f64;
                    }
                } else {
                    if input[6] < 0.024109015_f64 {
                        var21 = 0.07059021_f64;
                    } else {
                        var21 = 0.056904536_f64;
                    }
                }
            }
        } else {
            if input[1] < 306.0_f64 {
                if input[0] < 4.0_f64 {
                    if input[0] < 2.0_f64 {
                        var21 = 0.10041267_f64;
                    } else {
                        var21 = 0.10880043_f64;
                    }
                } else {
                    if input[1] < 234.0_f64 {
                        var21 = 0.11281154_f64;
                    } else {
                        var21 = 0.11989033_f64;
                    }
                }
            } else {
                if input[0] < 1.0_f64 {
                    if input[4] < 81.0_f64 {
                        var21 = 0.08237781_f64;
                    } else {
                        var21 = 0.10925857_f64;
                    }
                } else {
                    if input[1] < 388.0_f64 {
                        var21 = 0.1235969_f64;
                    } else {
                        var21 = 0.12962823_f64;
                    }
                }
            }
        }
    } else {
        if input[6] < 0.0017777072_f64 {
            if input[6] < 0.0010077858_f64 {
                if input[5] < 697195.0_f64 {
                    if input[7] < 4879.0_f64 {
                        var21 = 0.16716732_f64;
                    } else {
                        var21 = 0.1813735_f64;
                    }
                } else {
                    if input[0] < 80.0_f64 {
                        var21 = 0.10197587_f64;
                    } else {
                        var21 = 0.13039029_f64;
                    }
                }
            } else {
                if input[0] < 1.0_f64 {
                    if input[7] < 1786.0_f64 {
                        var21 = 0.14537384_f64;
                    } else {
                        var21 = 0.15560363_f64;
                    }
                } else {
                    if input[6] < 0.0014030216_f64 {
                        var21 = 0.16268437_f64;
                    } else {
                        var21 = 0.15748416_f64;
                    }
                }
            }
        } else {
            if input[6] < 0.0024632385_f64 {
                if input[0] < 1.0_f64 {
                    if input[6] < 0.0021541058_f64 {
                        var21 = 0.13896637_f64;
                    } else {
                        var21 = 0.12948665_f64;
                    }
                } else {
                    if input[7] < 872.0_f64 {
                        var21 = 0.15982114_f64;
                    } else {
                        var21 = 0.14999965_f64;
                    }
                }
            } else {
                if input[0] < 1.0_f64 {
                    if input[4] < 139.0_f64 {
                        var21 = 0.11852481_f64;
                    } else {
                        var21 = 0.13243699_f64;
                    }
                } else {
                    if input[6] < 0.003191065_f64 {
                        var21 = 0.14272961_f64;
                    } else {
                        var21 = 0.1361175_f64;
                    }
                }
            }
        }
    }
    let var22: f64;
    if input[1] < 525.0_f64 {
        if input[1] < 200.0_f64 {
            if input[5] < 203.0_f64 {
                if input[6] < 0.015704801_f64 {
                    if input[0] < 5.0_f64 {
                        var22 = 0.0696063_f64;
                    } else {
                        var22 = 0.07810952_f64;
                    }
                } else {
                    if input[7] < 81.0_f64 {
                        var22 = 0.05259353_f64;
                    } else {
                        var22 = 0.065723434_f64;
                    }
                }
            } else {
                if input[0] < 5.0_f64 {
                    if input[0] < 2.0_f64 {
                        var22 = 0.07590865_f64;
                    } else {
                        var22 = 0.0856387_f64;
                    }
                } else {
                    if input[1] < 137.0_f64 {
                        var22 = 0.08933718_f64;
                    } else {
                        var22 = 0.09908356_f64;
                    }
                }
            }
        } else {
            if input[1] < 350.0_f64 {
                if input[0] < 2.0_f64 {
                    if input[2] < 370.0_f64 {
                        var22 = 0.09356152_f64;
                    } else {
                        var22 = 0.063503884_f64;
                    }
                } else {
                    if input[1] < 265.0_f64 {
                        var22 = 0.104653_f64;
                    } else {
                        var22 = 0.111254625_f64;
                    }
                }
            } else {
                if input[0] < 6.0_f64 {
                    if input[7] < 471.0_f64 {
                        var22 = 0.1231121_f64;
                    } else {
                        var22 = 0.11318737_f64;
                    }
                } else {
                    if input[6] < 0.0048537725_f64 {
                        var22 = 0.12537353_f64;
                    } else {
                        var22 = 0.11499243_f64;
                    }
                }
            }
        }
    } else {
        if input[6] < 0.0016895973_f64 {
            if input[5] < 697195.0_f64 {
                if input[6] < 0.0007331083_f64 {
                    if input[7] < 9375.0_f64 {
                        var22 = 0.16668104_f64;
                    } else {
                        var22 = 0.17977427_f64;
                    }
                } else {
                    if input[6] < 0.0011850469_f64 {
                        var22 = 0.15768395_f64;
                    } else {
                        var22 = 0.15091896_f64;
                    }
                }
            } else {
                if input[0] < 40.0_f64 {
                    if input[0] < 30.0_f64 {
                        var22 = 0.09190154_f64;
                    } else {
                        var22 = 0.048871048_f64;
                    }
                } else {
                    if input[1] < 920931.0_f64 {
                        var22 = 0.13945799_f64;
                    } else {
                        var22 = 0.09517657_f64;
                    }
                }
            }
        } else {
            if input[6] < 0.0024632385_f64 {
                if input[0] < 1.0_f64 {
                    if input[4] < 160.0_f64 {
                        var22 = 0.11978751_f64;
                    } else {
                        var22 = 0.13043517_f64;
                    }
                } else {
                    if input[6] < 0.002044038_f64 {
                        var22 = 0.14591572_f64;
                    } else {
                        var22 = 0.14034629_f64;
                    }
                }
            } else {
                if input[0] < 1.0_f64 {
                    if input[4] < 139.0_f64 {
                        var22 = 0.10705501_f64;
                    } else {
                        var22 = 0.12404704_f64;
                    }
                } else {
                    if input[6] < 0.0029974296_f64 {
                        var22 = 0.1348289_f64;
                    } else {
                        var22 = 0.12849717_f64;
                    }
                }
            }
        }
    }
    let var23: f64;
    if input[1] < 589.0_f64 {
        if input[1] < 200.0_f64 {
            if input[1] < 91.0_f64 {
                if input[1] < 42.0_f64 {
                    if input[0] < 7.0_f64 {
                        var23 = 0.046826556_f64;
                    } else {
                        var23 = 0.057925332_f64;
                    }
                } else {
                    if input[0] < 8.0_f64 {
                        var23 = 0.06209283_f64;
                    } else {
                        var23 = 0.07336206_f64;
                    }
                }
            } else {
                if input[0] < 5.0_f64 {
                    if input[6] < 0.0056170067_f64 {
                        var23 = 0.09151599_f64;
                    } else {
                        var23 = 0.07213899_f64;
                    }
                } else {
                    if input[1] < 143.0_f64 {
                        var23 = 0.08038932_f64;
                    } else {
                        var23 = 0.08894617_f64;
                    }
                }
            }
        } else {
            if input[1] < 357.0_f64 {
                if input[0] < 4.0_f64 {
                    if input[4] < 60.0_f64 {
                        var23 = 0.10349605_f64;
                    } else {
                        var23 = 0.085772894_f64;
                    }
                } else {
                    if input[1] < 293.0_f64 {
                        var23 = 0.09673083_f64;
                    } else {
                        var23 = 0.10448765_f64;
                    }
                }
            } else {
                if input[0] < 1.0_f64 {
                    if input[6] < 0.0032773744_f64 {
                        var23 = 0.10430678_f64;
                    } else {
                        var23 = 0.08162614_f64;
                    }
                } else {
                    if input[1] < 441.0_f64 {
                        var23 = 0.10710122_f64;
                    } else {
                        var23 = 0.11398029_f64;
                    }
                }
            }
        }
    } else {
        if input[6] < 0.0016895973_f64 {
            if input[6] < 0.0008503124_f64 {
                if input[5] < 697195.0_f64 {
                    if input[7] < 4879.0_f64 {
                        var23 = 0.15694901_f64;
                    } else {
                        var23 = 0.17336644_f64;
                    }
                } else {
                    if input[0] < 80.0_f64 {
                        var23 = 0.07991198_f64;
                    } else {
                        var23 = 0.1112419_f64;
                    }
                }
            } else {
                if input[0] < 1.0_f64 {
                    if input[6] < 0.0011983617_f64 {
                        var23 = 0.14390817_f64;
                    } else {
                        var23 = 0.13032186_f64;
                    }
                } else {
                    if input[6] < 0.0014030216_f64 {
                        var23 = 0.14974733_f64;
                    } else {
                        var23 = 0.14300214_f64;
                    }
                }
            }
        } else {
            if input[6] < 0.0022774327_f64 {
                if input[0] < 1.0_f64 {
                    if input[2] < 2811.0_f64 {
                        var23 = 0.1197623_f64;
                    } else {
                        var23 = 0.036925327_f64;
                    }
                } else {
                    if input[7] < 946.0_f64 {
                        var23 = 0.14870693_f64;
                    } else {
                        var23 = 0.13495861_f64;
                    }
                }
            } else {
                if input[0] < 1.0_f64 {
                    if input[6] < 0.0028133984_f64 {
                        var23 = 0.106358685_f64;
                    } else {
                        var23 = 0.0923817_f64;
                    }
                } else {
                    if input[6] < 0.0029974296_f64 {
                        var23 = 0.1269737_f64;
                    } else {
                        var23 = 0.11942086_f64;
                    }
                }
            }
        }
    }
    let var24: f64;
    if input[1] < 636.0_f64 {
        if input[1] < 234.0_f64 {
            if input[6] < 0.010879471_f64 {
                if input[0] < 3.0_f64 {
                    if input[6] < 0.0065499716_f64 {
                        var24 = 0.070629485_f64;
                    } else {
                        var24 = 0.05649968_f64;
                    }
                } else {
                    if input[1] < 152.0_f64 {
                        var24 = 0.07037304_f64;
                    } else {
                        var24 = 0.079740524_f64;
                    }
                }
            } else {
                if input[5] < 138.0_f64 {
                    if input[6] < 0.019992596_f64 {
                        var24 = 0.050111353_f64;
                    } else {
                        var24 = 0.03882314_f64;
                    }
                } else {
                    if input[0] < 3.0_f64 {
                        var24 = 0.04666103_f64;
                    } else {
                        var24 = 0.06084699_f64;
                    }
                }
            }
        } else {
            if input[1] < 412.0_f64 {
                if input[0] < 5.0_f64 {
                    if input[4] < 71.0_f64 {
                        var24 = 0.094593845_f64;
                    } else {
                        var24 = 0.08003446_f64;
                    }
                } else {
                    if input[6] < 0.0057125213_f64 {
                        var24 = 0.097058706_f64;
                    } else {
                        var24 = 0.087405734_f64;
                    }
                }
            } else {
                if input[0] < 1.0_f64 {
                    if input[6] < 0.0038275942_f64 {
                        var24 = 0.0882585_f64;
                    } else {
                        var24 = 0.049377773_f64;
                    }
                } else {
                    if input[6] < 0.004239766_f64 {
                        var24 = 0.10544332_f64;
                    } else {
                        var24 = 0.097789906_f64;
                    }
                }
            }
        }
    } else {
        if input[6] < 0.0015713421_f64 {
            if input[5] < 697195.0_f64 {
                if input[6] < 0.0006825326_f64 {
                    if input[7] < 13320.0_f64 {
                        var24 = 0.15719366_f64;
                    } else {
                        var24 = 0.17550446_f64;
                    }
                } else {
                    if input[6] < 0.0010776594_f64 {
                        var24 = 0.14422671_f64;
                    } else {
                        var24 = 0.13591443_f64;
                    }
                }
            } else {
                if input[1] < 920931.0_f64 {
                    if input[0] < 135.0_f64 {
                        var24 = 0.083678596_f64;
                    } else {
                        var24 = 0.14640366_f64;
                    }
                } else {
                    if input[0] < 73.0_f64 {
                        var24 = 0.0067288624_f64;
                    } else {
                        var24 = 0.079057656_f64;
                    }
                }
            }
        } else {
            if input[6] < 0.0022774327_f64 {
                if input[0] < 1.0_f64 {
                    if input[4] < 195.0_f64 {
                        var24 = 0.10662891_f64;
                    } else {
                        var24 = 0.11600559_f64;
                    }
                } else {
                    if input[6] < 0.001969262_f64 {
                        var24 = 0.1299424_f64;
                    } else {
                        var24 = 0.12388288_f64;
                    }
                }
            } else {
                if input[0] < 1.0_f64 {
                    if input[5] < 1379.0_f64 {
                        var24 = 0.031064136_f64;
                    } else {
                        var24 = 0.09412849_f64;
                    }
                } else {
                    if input[6] < 0.0030512332_f64 {
                        var24 = 0.11723353_f64;
                    } else {
                        var24 = 0.10912579_f64;
                    }
                }
            }
        }
    }
    let var25: f64;
    if input[1] < 636.0_f64 {
        if input[1] < 240.0_f64 {
            if input[1] < 105.0_f64 {
                if input[6] < 0.01514269_f64 {
                    if input[0] < 6.0_f64 {
                        var25 = 0.04489165_f64;
                    } else {
                        var25 = 0.05450309_f64;
                    }
                } else {
                    if input[4] < 22.0_f64 {
                        var25 = 0.029004857_f64;
                    } else {
                        var25 = 0.041202538_f64;
                    }
                }
            } else {
                if input[0] < 8.0_f64 {
                    if input[1] < 195.0_f64 {
                        var25 = 0.05745345_f64;
                    } else {
                        var25 = 0.06614987_f64;
                    }
                } else {
                    if input[6] < 0.00763944_f64 {
                        var25 = 0.07885215_f64;
                    } else {
                        var25 = 0.06815623_f64;
                    }
                }
            }
        } else {
            if input[1] < 412.0_f64 {
                if input[0] < 2.0_f64 {
                    if input[4] < 64.0_f64 {
                        var25 = 0.09881805_f64;
                    } else {
                        var25 = 0.06476686_f64;
                    }
                } else {
                    if input[1] < 306.0_f64 {
                        var25 = 0.076989025_f64;
                    } else {
                        var25 = 0.084479734_f64;
                    }
                }
            } else {
                if input[0] < 1.0_f64 {
                    if input[6] < 0.0031342083_f64 {
                        var25 = 0.08497213_f64;
                    } else {
                        var25 = 0.062294215_f64;
                    }
                } else {
                    if input[6] < 0.0043807346_f64 {
                        var25 = 0.09466777_f64;
                    } else {
                        var25 = 0.086175285_f64;
                    }
                }
            }
        }
    } else {
        if input[6] < 0.0015713421_f64 {
            if input[5] < 697195.0_f64 {
                if input[6] < 0.0006825326_f64 {
                    if input[7] < 13320.0_f64 {
                        var25 = 0.14990906_f64;
                    } else {
                        var25 = 0.17080934_f64;
                    }
                } else {
                    if input[6] < 0.0010776594_f64 {
                        var25 = 0.13557458_f64;
                    } else {
                        var25 = 0.12658526_f64;
                    }
                }
            } else {
                if input[0] < 17.0_f64 {
                    if input[4] < 1936.0_f64 {
                        var25 = 0.10959214_f64;
                    } else {
                        var25 = -0.0019672501_f64;
                    }
                } else {
                    if input[1] < 920931.0_f64 {
                        var25 = 0.1022766_f64;
                    } else {
                        var25 = 0.060428422_f64;
                    }
                }
            }
        } else {
            if input[6] < 0.0022466243_f64 {
                if input[0] < 1.0_f64 {
                    if input[4] < 195.0_f64 {
                        var25 = 0.09679328_f64;
                    } else {
                        var25 = 0.10569032_f64;
                    }
                } else {
                    if input[7] < 946.0_f64 {
                        var25 = 0.13574485_f64;
                    } else {
                        var25 = 0.11715702_f64;
                    }
                }
            } else {
                if input[0] < 1.0_f64 {
                    if input[5] < 1379.0_f64 {
                        var25 = 0.02619715_f64;
                    } else {
                        var25 = 0.08392777_f64;
                    }
                } else {
                    if input[6] < 0.0028355184_f64 {
                        var25 = 0.10807891_f64;
                    } else {
                        var25 = 0.10039127_f64;
                    }
                }
            }
        }
    }
    let var26: f64;
    if input[1] < 732.0_f64 {
        if input[1] < 252.0_f64 {
            if input[6] < 0.010060807_f64 {
                if input[0] < 5.0_f64 {
                    if input[0] < 1.0_f64 {
                        var26 = 0.03839014_f64;
                    } else {
                        var26 = 0.05158356_f64;
                    }
                } else {
                    if input[1] < 168.0_f64 {
                        var26 = 0.055815317_f64;
                    } else {
                        var26 = 0.064387105_f64;
                    }
                }
            } else {
                if input[5] < 119.0_f64 {
                    if input[4] < 19.0_f64 {
                        var26 = 0.018839339_f64;
                    } else {
                        var26 = 0.03311354_f64;
                    }
                } else {
                    if input[0] < 3.0_f64 {
                        var26 = 0.03071095_f64;
                    } else {
                        var26 = 0.044788785_f64;
                    }
                }
            }
        } else {
            if input[1] < 433.0_f64 {
                if input[0] < 6.0_f64 {
                    if input[4] < 80.0_f64 {
                        var26 = 0.07225933_f64;
                    } else {
                        var26 = 0.060665794_f64;
                    }
                } else {
                    if input[6] < 0.0048537725_f64 {
                        var26 = 0.082602344_f64;
                    } else {
                        var26 = 0.0719658_f64;
                    }
                }
            } else {
                if input[0] < 6.0_f64 {
                    if input[2] < 640.0_f64 {
                        var26 = 0.08465684_f64;
                    } else {
                        var26 = 0.07093524_f64;
                    }
                } else {
                    if input[6] < 0.0037341118_f64 {
                        var26 = 0.09341107_f64;
                    } else {
                        var26 = 0.0816989_f64;
                    }
                }
            }
        }
    } else {
        if input[6] < 0.0014718786_f64 {
            if input[5] < 697195.0_f64 {
                if input[6] < 0.00065048644_f64 {
                    if input[7] < 13320.0_f64 {
                        var26 = 0.14310113_f64;
                    } else {
                        var26 = 0.16537803_f64;
                    }
                } else {
                    if input[0] < 1.0_f64 {
                        var26 = 0.11322124_f64;
                    } else {
                        var26 = 0.12482724_f64;
                    }
                }
            } else {
                if input[6] < 0.00016297853_f64 {
                    if input[0] < 80.0_f64 {
                        var26 = 0.035734344_f64;
                    } else {
                        var26 = 0.08192557_f64;
                    }
                } else {
                    if input[0] < 2.0_f64 {
                        var26 = 0.046839513_f64;
                    } else {
                        var26 = 0.14588873_f64;
                    }
                }
            }
        } else {
            if input[6] < 0.0021541058_f64 {
                if input[0] < 1.0_f64 {
                    if input[2] < 4348.0_f64 {
                        var26 = 0.091272615_f64;
                    } else {
                        var26 = -0.0909656_f64;
                    }
                } else {
                    if input[7] < 1021.0_f64 {
                        var26 = 0.12406216_f64;
                    } else {
                        var26 = 0.10853576_f64;
                    }
                }
            } else {
                if input[0] < 1.0_f64 {
                    if input[2] < 750.0_f64 {
                        var26 = 0.09583264_f64;
                    } else {
                        var26 = 0.07017486_f64;
                    }
                } else {
                    if input[6] < 0.0027479425_f64 {
                        var26 = 0.09937491_f64;
                    } else {
                        var26 = 0.09103703_f64;
                    }
                }
            }
        }
    }
    let var27: f64;
    if input[1] < 793.0_f64 {
        if input[1] < 299.0_f64 {
            if input[1] < 114.0_f64 {
                if input[6] < 0.015704801_f64 {
                    if input[0] < 8.0_f64 {
                        var27 = 0.032239363_f64;
                    } else {
                        var27 = 0.041753273_f64;
                    }
                } else {
                    if input[0] < 5.0_f64 {
                        var27 = 0.01955181_f64;
                    } else {
                        var27 = 0.02888023_f64;
                    }
                }
            } else {
                if input[0] < 6.0_f64 {
                    if input[0] < 2.0_f64 {
                        var27 = 0.03735269_f64;
                    } else {
                        var27 = 0.04736501_f64;
                    }
                } else {
                    if input[2] < 179.0_f64 {
                        var27 = 0.049525607_f64;
                    } else {
                        var27 = 0.059599828_f64;
                    }
                }
            }
        } else {
            if input[1] < 483.0_f64 {
                if input[0] < 7.0_f64 {
                    if input[7] < 465.0_f64 {
                        var27 = 0.06795426_f64;
                    } else {
                        var27 = 0.056326833_f64;
                    }
                } else {
                    if input[6] < 0.0048537725_f64 {
                        var27 = 0.07601493_f64;
                    } else {
                        var27 = 0.063593335_f64;
                    }
                }
            } else {
                if input[2] < 759.0_f64 {
                    if input[1] < 636.0_f64 {
                        var27 = 0.07371489_f64;
                    } else {
                        var27 = 0.08335229_f64;
                    }
                } else {
                    if input[0] < 6.0_f64 {
                        var27 = 0.05456535_f64;
                    } else {
                        var27 = 0.07829753_f64;
                    }
                }
            }
        }
    } else {
        if input[6] < 0.0014030216_f64 {
            if input[5] < 697195.0_f64 {
                if input[6] < 0.0006176806_f64 {
                    if input[7] < 13320.0_f64 {
                        var27 = 0.13604318_f64;
                    } else {
                        var27 = 0.1591596_f64;
                    }
                } else {
                    if input[6] < 0.0008503124_f64 {
                        var27 = 0.12210693_f64;
                    } else {
                        var27 = 0.110131815_f64;
                    }
                }
            } else {
                if input[1] < 920931.0_f64 {
                    if input[0] < 135.0_f64 {
                        var27 = 0.05494998_f64;
                    } else {
                        var27 = 0.12570405_f64;
                    }
                } else {
                    if input[0] < 493.0_f64 {
                        var27 = 0.026556293_f64;
                    } else {
                        var27 = 0.10797196_f64;
                    }
                }
            }
        } else {
            if input[6] < 0.002044038_f64 {
                if input[0] < 1.0_f64 {
                    if input[2] < 4348.0_f64 {
                        var27 = 0.080762796_f64;
                    } else {
                        var27 = -0.041738868_f64;
                    }
                } else {
                    if input[7] < 1055.0_f64 {
                        var27 = 0.12242966_f64;
                    } else {
                        var27 = 0.10010616_f64;
                    }
                }
            } else {
                if input[6] < 0.0026666143_f64 {
                    if input[7] < 840.0_f64 {
                        var27 = 0.104880415_f64;
                    } else {
                        var27 = 0.08747636_f64;
                    }
                } else {
                    if input[2] < 802.0_f64 {
                        var27 = 0.09283052_f64;
                    } else {
                        var27 = 0.07871783_f64;
                    }
                }
            }
        }
    }
    let var28: f64;
    if input[1] < 804.0_f64 {
        if input[1] < 326.0_f64 {
            if input[6] < 0.009163408_f64 {
                if input[0] < 8.0_f64 {
                    if input[1] < 195.0_f64 {
                        var28 = 0.034700394_f64;
                    } else {
                        var28 = 0.043737005_f64;
                    }
                } else {
                    if input[6] < 0.006310512_f64 {
                        var28 = 0.05941487_f64;
                    } else {
                        var28 = 0.047845732_f64;
                    }
                }
            } else {
                if input[5] < 138.0_f64 {
                    if input[5] < 71.0_f64 {
                        var28 = 0.015872784_f64;
                    } else {
                        var28 = 0.024433473_f64;
                    }
                } else {
                    if input[0] < 4.0_f64 {
                        var28 = 0.022351293_f64;
                    } else {
                        var28 = 0.033940513_f64;
                    }
                }
            }
        } else {
            if input[1] < 525.0_f64 {
                if input[0] < 4.0_f64 {
                    if input[7] < 477.0_f64 {
                        var28 = 0.06684327_f64;
                    } else {
                        var28 = 0.0457044_f64;
                    }
                } else {
                    if input[6] < 0.0047826087_f64 {
                        var28 = 0.06382676_f64;
                    } else {
                        var28 = 0.053871073_f64;
                    }
                }
            } else {
                if input[2] < 502.0_f64 {
                    if input[0] < 4.0_f64 {
                        var28 = 0.096594274_f64;
                    } else {
                        var28 = 0.07435599_f64;
                    }
                } else {
                    if input[1] < 589.0_f64 {
                        var28 = 0.055855215_f64;
                    } else {
                        var28 = 0.06794121_f64;
                    }
                }
            }
        }
    } else {
        if input[6] < 0.0012896123_f64 {
            if input[5] < 697195.0_f64 {
                if input[7] < 4879.0_f64 {
                    if input[6] < 0.0008503124_f64 {
                        var28 = 0.11344173_f64;
                    } else {
                        var28 = 0.100997806_f64;
                    }
                } else {
                    if input[7] < 13320.0_f64 {
                        var28 = 0.13246556_f64;
                    } else {
                        var28 = 0.15212415_f64;
                    }
                }
            } else {
                if input[6] < 0.00016297853_f64 {
                    if input[0] < 80.0_f64 {
                        var28 = 0.021148391_f64;
                    } else {
                        var28 = 0.06337429_f64;
                    }
                } else {
                    if input[0] < 2.0_f64 {
                        var28 = 0.03711131_f64;
                    } else {
                        var28 = 0.13514794_f64;
                    }
                }
            }
        } else {
            if input[6] < 0.0019260107_f64 {
                if input[0] < 1.0_f64 {
                    if input[2] < 4348.0_f64 {
                        var28 = 0.07251513_f64;
                    } else {
                        var28 = 0.027121386_f64;
                    }
                } else {
                    if input[1] < 1369.0_f64 {
                        var28 = 0.08217632_f64;
                    } else {
                        var28 = 0.09534234_f64;
                    }
                }
            } else {
                if input[0] < 1.0_f64 {
                    if input[2] < 1954.0_f64 {
                        var28 = 0.059602488_f64;
                    } else {
                        var28 = -0.013894391_f64;
                    }
                } else {
                    if input[6] < 0.0024632385_f64 {
                        var28 = 0.081688665_f64;
                    } else {
                        var28 = 0.07380429_f64;
                    }
                }
            }
        }
    }
    let var29: f64;
    if input[1] < 924.0_f64 {
        if input[1] < 350.0_f64 {
            if input[1] < 132.0_f64 {
                if input[6] < 0.012462612_f64 {
                    if input[0] < 8.0_f64 {
                        var29 = 0.023786863_f64;
                    } else {
                        var29 = 0.03348931_f64;
                    }
                } else {
                    if input[0] < 5.0_f64 {
                        var29 = 0.014103929_f64;
                    } else {
                        var29 = 0.021721797_f64;
                    }
                }
            } else {
                if input[0] < 2.0_f64 {
                    if input[6] < 0.00763944_f64 {
                        var29 = 0.02807895_f64;
                    } else {
                        var29 = 0.0013798078_f64;
                    }
                } else {
                    if input[1] < 228.0_f64 {
                        var29 = 0.035620224_f64;
                    } else {
                        var29 = 0.04314177_f64;
                    }
                }
            }
        } else {
            if input[6] < 0.0035012828_f64 {
                if input[7] < 607.0_f64 {
                    if input[7] < 581.0_f64 {
                        var29 = 0.10156554_f64;
                    } else {
                        var29 = 0.08271404_f64;
                    }
                } else {
                    if input[0] < 6.0_f64 {
                        var29 = 0.053973533_f64;
                    } else {
                        var29 = 0.067280225_f64;
                    }
                }
            } else {
                if input[0] < 1.0_f64 {
                    if input[6] < 0.0044324365_f64 {
                        var29 = 0.025430629_f64;
                    } else {
                        var29 = -0.0059555355_f64;
                    }
                } else {
                    if input[7] < 520.0_f64 {
                        var29 = 0.05496756_f64;
                    } else {
                        var29 = 0.04799899_f64;
                    }
                }
            }
        }
    } else {
        if input[6] < 0.0011850469_f64 {
            if input[1] < 337937.0_f64 {
                if input[7] < 4879.0_f64 {
                    if input[6] < 0.00077335845_f64 {
                        var29 = 0.105655685_f64;
                    } else {
                        var29 = 0.09295099_f64;
                    }
                } else {
                    if input[7] < 13320.0_f64 {
                        var29 = 0.12304995_f64;
                    } else {
                        var29 = 0.14446615_f64;
                    }
                }
            } else {
                if input[1] < 920931.0_f64 {
                    if input[0] < 135.0_f64 {
                        var29 = 0.04011496_f64;
                    } else {
                        var29 = 0.11129315_f64;
                    }
                } else {
                    if input[0] < 493.0_f64 {
                        var29 = 0.0112348925_f64;
                    } else {
                        var29 = 0.09143866_f64;
                    }
                }
            }
        } else {
            if input[6] < 0.0017777072_f64 {
                if input[0] < 1.0_f64 {
                    if input[2] < 4497.0_f64 {
                        var29 = 0.065213054_f64;
                    } else {
                        var29 = 0.005320811_f64;
                    }
                } else {
                    if input[7] < 1235.0_f64 {
                        var29 = 0.10763361_f64;
                    } else {
                        var29 = 0.084437214_f64;
                    }
                }
            } else {
                if input[4] < 138.0_f64 {
                    if input[2] < 972.0_f64 {
                        var29 = 0.07464907_f64;
                    } else {
                        var29 = 0.061229564_f64;
                    }
                } else {
                    if input[7] < 1125.0_f64 {
                        var29 = 0.07640524_f64;
                    } else {
                        var29 = 0.06563502_f64;
                    }
                }
            }
        }
    }
    let var30: f64;
    if input[6] < 0.002789822_f64 {
        if input[6] < 0.0014030216_f64 {
            if input[1] < 337937.0_f64 {
                if input[7] < 4232.0_f64 {
                    if input[0] < 1.0_f64 {
                        var30 = 0.071469985_f64;
                    } else {
                        var30 = 0.086299054_f64;
                    }
                } else {
                    if input[0] < 9.0_f64 {
                        var30 = 0.106813684_f64;
                    } else {
                        var30 = 0.13235365_f64;
                    }
                }
            } else {
                if input[6] < 0.00016297853_f64 {
                    if input[0] < 73.0_f64 {
                        var30 = 0.008378187_f64;
                    } else {
                        var30 = 0.047880415_f64;
                    }
                } else {
                    if input[0] < 46.0_f64 {
                        var30 = 0.07138872_f64;
                    } else {
                        var30 = 0.14005914_f64;
                    }
                }
            }
        } else {
            if input[6] < 0.001969262_f64 {
                if input[7] < 1099.0_f64 {
                    if input[0] < 1.0_f64 {
                        var30 = 0.047234215_f64;
                    } else {
                        var30 = 0.099461816_f64;
                    }
                } else {
                    if input[1] < 1162.0_f64 {
                        var30 = 0.045732778_f64;
                    } else {
                        var30 = 0.06947419_f64;
                    }
                }
            } else {
                if input[7] < 770.0_f64 {
                    if input[1] < 595.0_f64 {
                        var30 = 0.057839908_f64;
                    } else {
                        var30 = 0.09114665_f64;
                    }
                } else {
                    if input[1] < 868.0_f64 {
                        var30 = 0.045498423_f64;
                    } else {
                        var30 = 0.05950998_f64;
                    }
                }
            }
        }
    } else {
        if input[1] < 306.0_f64 {
            if input[6] < 0.009799118_f64 {
                if input[0] < 5.0_f64 {
                    if input[6] < 0.004239766_f64 {
                        var30 = 0.047387857_f64;
                    } else {
                        var30 = 0.02374672_f64;
                    }
                } else {
                    if input[0] < 10.0_f64 {
                        var30 = 0.03129333_f64;
                    } else {
                        var30 = 0.039325066_f64;
                    }
                }
            } else {
                if input[0] < 7.0_f64 {
                    if input[6] < 0.021510096_f64 {
                        var30 = 0.016355958_f64;
                    } else {
                        var30 = 0.0017503437_f64;
                    }
                } else {
                    if input[2] < 61.0_f64 {
                        var30 = 0.017533196_f64;
                    } else {
                        var30 = 0.027708536_f64;
                    }
                }
            }
        } else {
            if input[1] < 483.0_f64 {
                if input[2] < 436.0_f64 {
                    if input[1] < 412.0_f64 {
                        var30 = 0.038606916_f64;
                    } else {
                        var30 = 0.05077225_f64;
                    }
                } else {
                    if input[0] < 5.0_f64 {
                        var30 = 0.017924001_f64;
                    } else {
                        var30 = 0.0414816_f64;
                    }
                }
            } else {
                if input[0] < 1.0_f64 {
                    if input[5] < 1078.0_f64 {
